digraph Tree {
node [shape=box, style="filled", color="black"] ;
0 [label="age <= 21.0\nmse = 283.726\nsamples = 618\nvalue = 35.465", fillcolor="#f4cbad"] ;
1 [label="cement <= 354.5\nmse = 150.637\nsamples = 194\nvalue = 23.027", fillcolor="#f9e3d2"] ;
0 -> 1 [labeldistance=2.5, labelangle=45, headlabel="True"] ;
2 [label="superplasticizer <= 8.8\nmse = 73.672\nsamples = 140\nvalue = 18.313", fillcolor="#fbece0"] ;
1 -> 2 ;
3 [label="age <= 10.5\nmse = 39.712\nsamples = 110\nvalue = 15.593", fillcolor="#fcf1e9"] ;
2 -> 3 ;
4 [label="cement <= 189.1\nmse = 27.682\nsamples = 93\nvalue = 14.095", fillcolor="#fdf4ed"] ;
3 -> 4 ;
5 [label="coarse_aggregate <= 990.7\nmse = 20.476\nsamples = 26\nvalue = 9.993", fillcolor="#fefbf9"] ;
4 -> 5 ;
6 [label="mse = 13.572\nsamples = 14\nvalue = 8.088", fillcolor="#ffffff"] ;
5 -> 6 ;
7 [label="mse = 19.352\nsamples = 12\nvalue = 12.217", fillcolor="#fdf7f3"] ;
5 -> 7 ;
8 [label="fine_aggregate <= 734.15\nmse = 21.418\nsamples = 67\nvalue = 15.686", fillcolor="#fcf1e8"] ;
4 -> 8 ;
9 [label="mse = 22.562\nsamples = 14\nvalue = 20.451", fillcolor="#fae7da"] ;
8 -> 9 ;
10 [label="cement <= 282.5\nmse = 13.534\nsamples = 53\nvalue = 14.428", fillcolor="#fdf3ec"] ;
8 -> 10 ;
11 [label="superplasticizer <= 5.05\nmse = 10.249\nsamples = 36\nvalue = 13.302", fillcolor="#fdf5ef"] ;
10 -> 11 ;
12 [label="blast_furnace_slag <= 5.5\nmse = 8.881\nsamples = 25\nvalue = 12.431", fillcolor="#fdf7f2"] ;
11 -> 12 ;
13 [label="mse = 3.395\nsamples = 13\nvalue = 11.291", fillcolor="#fef9f5"] ;
12 -> 13 ;
14 [label="mse = 11.891\nsamples = 12\nvalue = 13.666", fillcolor="#fdf4ee"] ;
12 -> 14 ;
15 [label="mse = 7.709\nsamples = 11\nvalue = 15.283", fillcolor="#fcf1e9"] ;
11 -> 15 ;
16 [label="mse = 12.129\nsamples = 17\nvalue = 16.811", fillcolor="#fceee5"] ;
10 -> 16 ;
17 [label="mse = 26.03\nsamples = 17\nvalue = 23.791", fillcolor="#f9e1d0"] ;
3 -> 17 ;
18 [label="age <= 5.0\nmse = 71.579\nsamples = 30\nvalue = 28.288", fillcolor="#f7d8c2"] ;
2 -> 18 ;
19 [label="mse = 19.096\nsamples = 14\nvalue = 22.596", fillcolor="#f9e3d4"] ;
18 -> 19 ;
20 [label="mse = 64.349\nsamples = 16\nvalue = 33.268", fillcolor="#f5cfb4"] ;
18 -> 20 ;
21 [label="water <= 183.05\nmse = 143.242\nsamples = 54\nvalue = 35.247", fillcolor="#f4cbae"] ;
1 -> 21 ;
22 [label="age <= 5.0\nmse = 94.474\nsamples = 34\nvalue = 40.485", fillcolor="#f2c19e"] ;
21 -> 22 ;
23 [label="mse = 28.295\nsamples = 16\nvalue = 34.294", fillcolor="#f5cdb1"] ;
22 -> 23 ;
24 [label="mse = 88.94\nsamples = 18\nvalue = 45.988", fillcolor="#f0b78d"] ;
22 -> 24 ;
25 [label="mse = 100.224\nsamples = 20\nvalue = 26.343", fillcolor="#f8dcc8"] ;
21 -> 25 ;
26 [label="water <= 175.55\nmse = 241.446\nsamples = 424\nvalue = 41.156", fillcolor="#f2c09c"] ;
0 -> 26 [labeldistance=2.5, labelangle=-45, headlabel="False"] ;
27 [label="cement <= 239.3\nmse = 237.274\nsamples = 150\nvalue = 52.192", fillcolor="#eeab7b"] ;
26 -> 27 ;
28 [label="age <= 42.0\nmse = 132.988\nsamples = 54\nvalue = 38.94", fillcolor="#f3c4a3"] ;
27 -> 28 ;
29 [label="blast_furnace_slag <= 6.8\nmse = 98.085\nsamples = 27\nvalue = 31.375", fillcolor="#f6d3b9"] ;
28 -> 29 ;
30 [label="mse = 113.436\nsamples = 15\nvalue = 27.331", fillcolor="#f7dac5"] ;
29 -> 30 ;
31 [label="mse = 32.913\nsamples = 12\nvalue = 36.429", fillcolor="#f4c9aa"] ;
29 -> 31 ;
32 [label="fine_aggregate <= 794.2\nmse = 53.415\nsamples = 27\nvalue = 46.506", fillcolor="#f0b68c"] ;
28 -> 32 ;
33 [label="mse = 18.422\nsamples = 14\nvalue = 52.226", fillcolor="#eeab7b"] ;
32 -> 33 ;
34 [label="mse = 17.925\nsamples = 13\nvalue = 40.346", fillcolor="#f2c29e"] ;
32 -> 34 ;
35 [label="fly_ash <= 41.75\nmse = 141.589\nsamples = 96\nvalue = 59.646", fillcolor="#eb9d65"] ;
27 -> 35 ;
36 [label="superplasticizer <= 10.65\nmse = 118.635\nsamples = 52\nvalue = 64.775", fillcolor="#e99355"] ;
35 -> 36 ;
37 [label="fine_aggregate <= 773.35\nmse = 131.944\nsamples = 25\nvalue = 59.598", fillcolor="#eb9d65"] ;
36 -> 37 ;
38 [label="mse = 69.861\nsamples = 14\nvalue = 64.704", fillcolor="#e99355"] ;
37 -> 38 ;
39 [label="mse = 135.55\nsamples = 11\nvalue = 53.1", fillcolor="#eda978"] ;
37 -> 39 ;
40 [label="coarse_aggregate <= 940.35\nmse = 58.525\nsamples = 27\nvalue = 69.568", fillcolor="#e78a47"] ;
36 -> 40 ;
41 [label="mse = 18.4\nsamples = 12\nvalue = 63.791", fillcolor="#e99558"] ;
40 -> 41 ;
42 [label="mse = 42.562\nsamples = 15\nvalue = 74.19", fillcolor="#e58139"] ;
40 -> 42 ;
43 [label="fly_ash <= 118.75\nmse = 100.893\nsamples = 44\nvalue = 53.585", fillcolor="#eda877"] ;
35 -> 43 ;
44 [label="fly_ash <= 95.3\nmse = 66.451\nsamples = 31\nvalue = 49.65", fillcolor="#efb083"] ;
43 -> 44 ;
45 [label="mse = 45.725\nsamples = 11\nvalue = 53.952", fillcolor="#eda876"] ;
44 -> 45 ;
46 [label="mse = 62.072\nsamples = 20\nvalue = 47.284", fillcolor="#f0b48a"] ;
44 -> 46 ;
47 [label="mse = 58.017\nsamples = 13\nvalue = 62.97", fillcolor="#e9965b"] ;
43 -> 47 ;
48 [label="cement <= 303.8\nmse = 140.554\nsamples = 274\nvalue = 35.115", fillcolor="#f4cbae"] ;
26 -> 48 ;
49 [label="age <= 42.0\nmse = 102.956\nsamples = 171\nvalue = 30.761", fillcolor="#f6d4bb"] ;
48 -> 49 ;
50 [label="blast_furnace_slag <= 88.85\nmse = 77.448\nsamples = 122\nvalue = 27.51", fillcolor="#f7dac5"] ;
49 -> 50 ;
51 [label="cement <= 211.2\nmse = 53.618\nsamples = 41\nvalue = 21.525", fillcolor="#fae5d7"] ;
50 -> 51 ;
52 [label="mse = 12.31\nsamples = 14\nvalue = 14.165", fillcolor="#fdf3ed"] ;
51 -> 52 ;
53 [label="superplasticizer <= 4.55\nmse = 32.39\nsamples = 27\nvalue = 25.341", fillcolor="#f8decb"] ;
51 -> 53 ;
54 [label="mse = 8.421\nsamples = 16\nvalue = 21.984", fillcolor="#fae5d5"] ;
53 -> 54 ;
55 [label="mse = 27.019\nsamples = 11\nvalue = 30.224", fillcolor="#f6d5bd"] ;
53 -> 55 ;
56 [label="cement <= 188.1\nmse = 62.202\nsamples = 81\nvalue = 30.539", fillcolor="#f6d4bc"] ;
50 -> 56 ;
57 [label="blast_furnace_slag <= 185.3\nmse = 39.02\nsamples = 52\nvalue = 27.182", fillcolor="#f7dbc6"] ;
56 -> 57 ;
58 [label="fly_ash <= 97.35\nmse = 32.575\nsamples = 30\nvalue = 24.646", fillcolor="#f8dfcd"] ;
57 -> 58 ;
59 [label="mse = 8.516\nsamples = 13\nvalue = 21.218", fillcolor="#fae6d8"] ;
58 -> 59 ;
60 [label="mse = 35.115\nsamples = 17\nvalue = 27.267", fillcolor="#f7dac6"] ;
58 -> 60 ;
61 [label="superplasticizer <= 6.65\nmse = 27.081\nsamples = 22\nvalue = 30.64", fillcolor="#f6d4bb"] ;
57 -> 61 ;
62 [label="mse = 22.061\nsamples = 11\nvalue = 27.889", fillcolor="#f7d9c4"] ;
61 -> 62 ;
63 [label="mse = 16.972\nsamples = 11\nvalue = 33.39", fillcolor="#f5cfb3"] ;
61 -> 63 ;
64 [label="cement <= 263.45\nmse = 47.313\nsamples = 29\nvalue = 36.559", fillcolor="#f4c9aa"] ;
56 -> 64 ;
65 [label="mse = 34.628\nsamples = 18\nvalue = 33.816", fillcolor="#f5ceb2"] ;
64 -> 65 ;
66 [label="mse = 35.606\nsamples = 11\nvalue = 41.048", fillcolor="#f2c09c"] ;
64 -> 66 ;
67 [label="fine_aggregate <= 848.0\nmse = 74.614\nsamples = 49\nvalue = 38.856", fillcolor="#f3c4a3"] ;
49 -> 67 ;
68 [label="blast_furnace_slag <= 49.05\nmse = 44.142\nsamples = 34\nvalue = 42.658", fillcolor="#f1bd97"] ;
67 -> 68 ;
69 [label="mse = 28.219\nsamples = 11\nvalue = 36.875", fillcolor="#f4c8a9"] ;
68 -> 69 ;
70 [label="fine_aggregate <= 749.55\nmse = 28.115\nsamples = 23\nvalue = 45.424", fillcolor="#f0b88f"] ;
68 -> 70 ;
71 [label="mse = 24.166\nsamples = 12\nvalue = 47.213", fillcolor="#f0b48a"] ;
70 -> 71 ;
72 [label="mse = 25.125\nsamples = 11\nvalue = 43.473", fillcolor="#f1bc95"] ;
70 -> 72 ;
73 [label="mse = 36.644\nsamples = 15\nvalue = 30.238", fillcolor="#f6d5bd"] ;
67 -> 73 ;
74 [label="blast_furnace_slag <= 11.0\nmse = 119.265\nsamples = 103\nvalue = 42.342", fillcolor="#f2be98"] ;
48 -> 74 ;
75 [label="fine_aggregate <= 679.35\nmse = 60.833\nsamples = 66\nvalue = 37.859", fillcolor="#f3c6a6"] ;
74 -> 75 ;
76 [label="mse = 31.654\nsamples = 11\nvalue = 49.325", fillcolor="#efb083"] ;
75 -> 76 ;
77 [label="coarse_aggregate <= 949.5\nmse = 35.116\nsamples = 55\nvalue = 35.566", fillcolor="#f4cbad"] ;
75 -> 77 ;
78 [label="mse = 50.218\nsamples = 15\nvalue = 38.575", fillcolor="#f3c5a4"] ;
77 -> 78 ;
79 [label="coarse_aggregate <= 976.0\nmse = 24.784\nsamples = 40\nvalue = 34.438", fillcolor="#f5cdb0"] ;
77 -> 79 ;
80 [label="mse = 10.921\nsamples = 13\nvalue = 31.29", fillcolor="#f6d3ba"] ;
79 -> 80 ;
81 [label="coarse_aggregate <= 1039.0\nmse = 24.391\nsamples = 27\nvalue = 35.953", fillcolor="#f4caac"] ;
79 -> 81 ;
82 [label="mse = 20.14\nsamples = 16\nvalue = 37.743", fillcolor="#f3c6a6"] ;
81 -> 82 ;
83 [label="mse = 19.137\nsamples = 11\nvalue = 33.35", fillcolor="#f5cfb3"] ;
81 -> 83 ;
84 [label="coarse_aggregate <= 889.95\nmse = 123.701\nsamples = 37\nvalue = 50.339", fillcolor="#eeae80"] ;
74 -> 84 ;
85 [label="mse = 94.117\nsamples = 13\nvalue = 58.912", fillcolor="#eb9e67"] ;
84 -> 85 ;
86 [label="fine_aggregate <= 622.1\nmse = 78.357\nsamples = 24\nvalue = 45.695", fillcolor="#f0b78e"] ;
84 -> 86 ;
87 [label="mse = 7.885\nsamples = 11\nvalue = 40.678", fillcolor="#f2c19d"] ;
86 -> 87 ;
88 [label="mse = 98.664\nsamples = 13\nvalue = 49.941", fillcolor="#efaf82"] ;
86 -> 88 ;
}